FANN_FLO_2.1
num_layers=4
learning_rate=0.700000
connection_rate=1.000000
network_type=0
learning_momentum=0.000000
training_algorithm=2
train_error_function=1
train_stop_function=0
cascade_output_change_fraction=0.010000
quickprop_decay=-0.000100
quickprop_mu=1.750000
rprop_increase_factor=1.200000
rprop_decrease_factor=0.500000
rprop_delta_min=0.000000
rprop_delta_max=50.000000
rprop_delta_zero=0.100000
cascade_output_stagnation_epochs=12
cascade_candidate_change_fraction=0.010000
cascade_candidate_stagnation_epochs=12
cascade_max_out_epochs=150
cascade_min_out_epochs=50
cascade_max_cand_epochs=150
cascade_min_cand_epochs=50
cascade_num_candidate_groups=2
bit_fail_limit=3.49999999999999977796e-01
cascade_candidate_limit=1.00000000000000000000e+03
cascade_weight_multiplier=4.00000000000000022204e-01
cascade_activation_functions_count=10
cascade_activation_functions=3 5 7 8 10 11 14 15 16 17 
cascade_activation_steepnesses_count=4
cascade_activation_steepnesses=2.50000000000000000000e-01 5.00000000000000000000e-01 7.50000000000000000000e-01 1.00000000000000000000e+00 
layer_sizes=10 13 7 2 
scale_included=0
neurons (num_inputs, activation_function, activation_steepness)=(0, 0, 0.00000000000000000000e+00) (0, 0, 0.00000000000000000000e+00) (0, 0, 0.00000000000000000000e+00) (0, 0, 0.00000000000000000000e+00) (0, 0, 0.00000000000000000000e+00) (0, 0, 0.00000000000000000000e+00) (0, 0, 0.00000000000000000000e+00) (0, 0, 0.00000000000000000000e+00) (0, 0, 0.00000000000000000000e+00) (0, 0, 0.00000000000000000000e+00) (10, 4, 5.00000000000000000000e-01) (10, 4, 5.00000000000000000000e-01) (10, 4, 5.00000000000000000000e-01) (10, 4, 5.00000000000000000000e-01) (10, 4, 5.00000000000000000000e-01) (10, 4, 5.00000000000000000000e-01) (10, 4, 5.00000000000000000000e-01) (10, 4, 5.00000000000000000000e-01) (10, 4, 5.00000000000000000000e-01) (10, 4, 5.00000000000000000000e-01) (10, 4, 5.00000000000000000000e-01) (10, 4, 5.00000000000000000000e-01) (0, 0, 0.00000000000000000000e+00) (13, 4, 5.00000000000000000000e-01) (13, 4, 5.00000000000000000000e-01) (13, 4, 5.00000000000000000000e-01) (13, 4, 5.00000000000000000000e-01) (13, 4, 5.00000000000000000000e-01) (13, 4, 5.00000000000000000000e-01) (0, 0, 0.00000000000000000000e+00) (7, 4, 5.00000000000000000000e-01) (0, 0, 0.00000000000000000000e+00) 
connections (connected_to_neuron, weight)=(0, -1.77900904725217645641e+00) (1, -3.78234167579644608992e+00) (2, -1.23802151006921845600e+00) (3, 4.83761374142532563081e-01) (4, -1.00275733610171036148e+00) (5, 9.94719128522807750414e+02) (6, 2.16670515677224451156e-01) (7, 9.75503733292290786672e-01) (8, 9.94741643968755397509e+02) (9, 2.33861519685279156677e-01) (0, -2.87800676655145659666e+00) (1, -1.62931479019037284139e+00) (2, -1.11288730678275049613e+00) (3, 2.90395343556543103491e-02) (4, -2.84434651862951293211e+00) (5, 9.94662066180044803332e+02) (6, 1.18082206497350372665e+00) (7, 4.48285836016089778155e+00) (8, 9.94666617292696628283e+02) (9, 1.07130513141313232772e+00) (0, -2.85674187525669376342e+00) (1, 4.09998717481169949739e-01) (2, 1.29534701831613485723e+00) (3, -1.72516819424278966544e+00) (4, -2.69390944650643104907e+00) (5, 9.94642077047163638781e+02) (6, -1.78574358099419738810e-01) (7, 7.51204170962030470804e+00) (8, 9.94740622062021884631e+02) (9, -1.32469733231980468791e-01) (0, -2.86345257144542708616e+00) (1, -3.00541227961263590629e-01) (2, -1.00137404754406289520e+00) (3, 6.60490085066544274639e-01) (4, -2.95339256804557814817e+00) (5, 9.94725125316316280077e+02) (6, 1.01566952268043197982e+00) (7, 5.29216532228116687264e+00) (8, 9.94748135480815562914e+02) (9, 1.14749505171933807723e+00) (0, -2.96062569543484110923e+00) (1, -3.03214165458733031500e+00) (2, -1.27707671670528183361e-02) (3, 3.73788771098478633803e-01) (4, -2.93764545246723551841e+00) (5, 9.94792306910986098956e+02) (6, 4.14399605137035220714e-01) (7, 7.02397878483786097803e-01) (8, 9.94765436496371421526e+02) (9, 4.03181295734569400402e-01) (0, -1.99983564690062531888e+00) (1, -4.29423851484373564347e+00) (2, -2.66528328356632737695e+00) (3, 1.97742259245696466730e-01) (4, -1.86731441989848234719e+00) (5, 9.94778947930568847369e+02) (6, 1.76168531246096743414e-01) (7, 1.51739412963999975581e+00) (8, 9.94815052028531226824e+02) (9, 1.77716657586009157965e-01) (0, -2.89348048251243605833e+00) (1, -1.69604184728971518759e+00) (2, -9.94572496685533047334e-01) (3, 1.46014633203997157285e-01) (4, -2.84387335460754409056e+00) (5, 9.94814670081967506121e+02) (6, 9.94565306104809199184e-01) (7, 4.46553720568568568439e+00) (8, 9.94749978583091888140e+02) (9, 1.12459640751042999618e+00) (0, 3.82384758434685001482e-01) (1, -3.69286520827654740629e+00) (2, -3.17009527813913694061e+00) (3, 5.67132647017433155767e-01) (4, 4.06048227093609104266e-01) (5, 9.94777975585097465228e+02) (6, 3.83249473144197383423e-01) (7, 1.96366271045030971187e+00) (8, 9.94678549069697055529e+02) (9, 3.21995321978712112365e-01) (0, -2.44944316256693639389e+00) (1, -3.90461008500817596811e+00) (2, -9.20576771229963064513e-01) (3, 3.81218636252698805933e-01) (4, -2.31631229925802983871e+00) (5, 9.94697859544092807482e+02) (6, 4.22070087930793980124e-01) (7, 9.33646501114092197682e-01) (8, 9.94825261365408096026e+02) (9, 2.64500716766949084402e-01) (0, 1.04725045467908306485e+00) (1, 6.12984866775860171018e-01) (2, 5.26583499478395444804e-01) (3, 6.41646977608905544344e-01) (4, 4.14614760646032087799e-01) (5, 9.94751599866682681750e+02) (6, 4.48756078643203104583e-01) (7, 2.02647988813669022168e-01) (8, 9.94653271537059936236e+02) (9, 4.44525609177947367279e-01) (0, -2.54240502383484656690e+00) (1, -7.60274201280682626614e-02) (2, 1.52631975728768382039e-01) (3, -4.40045309521034447298e-02) (4, -2.22533438015008577793e+00) (5, 9.94653549749190005969e+02) (6, -1.10898677628699413034e-01) (7, 2.34690643438869983584e+00) (8, 9.94827640738124046038e+02) (9, 3.63020520692433207310e-02) (0, -2.99007107540729899497e+00) (1, -3.12078865135365823846e+00) (2, 9.71335444302935530070e-02) (3, 5.35459157889707881850e-01) (4, -2.94331564232471842857e+00) (5, 9.94693416543090734194e+02) (6, 3.44041965218369549806e-01) (7, 5.97054566687003407388e-01) (8, 9.94672671980941686343e+02) (9, 2.90201409967724976990e-01) (10, -9.93626606736985662494e-01) (11, 1.53880038113360950724e+00) (12, 4.49976005006330170843e-01) (13, 1.68002206880268034617e+00) (14, 2.79677921481444169416e+00) (15, 1.01926304151076330129e+00) (16, 1.51291628182893345134e+00) (17, -3.50715209273475414520e+00) (18, 4.78603841015079289889e+00) (19, -1.13953131751293246232e+00) (20, 4.68400405058274016401e-01) (21, 3.20135426834017433606e+00) (22, -8.42007616381588053223e-01) (10, -1.00355507162651202968e+00) (11, 1.63320751980324097019e+00) (12, 9.99056553415564985166e-01) (13, 1.55820077959457159444e+00) (14, 2.58908302655014432858e+00) (15, 1.03165593494433416311e+00) (16, 1.56225988760967560154e+00) (17, -3.64641794664639329326e+00) (18, 4.74486663588264256930e+00) (19, -1.11366385535472933732e+00) (20, 8.74483572652463236885e-01) (21, 2.95894989681710507412e+00) (22, -9.69855377297344278809e-01) (10, -1.38146262140744824354e-01) (11, -1.30475819056273500962e+00) (12, -1.54371507051009237976e+00) (13, -1.29903725480080645127e+00) (14, -2.66449252189396146306e+00) (15, 5.95638993547392692207e-04) (16, -1.21918124650956194444e+00) (17, 1.15722469458481369564e+00) (18, -2.11136760543040313820e+00) (19, 1.87951257809425320566e+00) (20, -7.08766082742688929841e-01) (21, -2.65955353201626065740e+00) (22, 8.74424561173819836490e-01) (10, -8.35287333998072922814e-02) (11, 1.38571752376627999048e+00) (12, 9.62174398772029371152e-01) (13, 1.67647932517942366282e+00) (14, 2.06401267265423538078e+00) (15, 1.11455823736845371918e+00) (16, 1.33906201787066536646e+00) (17, -5.57338849978853634326e+00) (18, 6.18843838428937775831e+00) (19, -8.12336488077780027872e-01) (20, 8.49041868688054868208e-01) (21, 1.74124048439452638881e+00) (22, 5.68556694890378633289e-02) (10, 5.53577970018513276784e-01) (11, 6.07555916697406828142e-01) (12, 2.96437638765964095455e+00) (13, 6.73378431179159964159e-01) (14, 1.17871989276265409785e+00) (15, 7.22075045310195506865e-01) (16, 7.49340585399143721546e-01) (17, -6.58288514195665142026e-03) (18, 8.20691249513844423014e-01) (19, -1.09543507793968619701e+00) (20, 8.17741512343851506550e-01) (21, 1.02324066084164355672e+00) (22, 1.58850632241049963267e-02) (10, -3.31884822710635352117e-01) (11, -1.12531435435057680650e+00) (12, -1.63110053869504034729e+00) (13, -1.18650937025786440415e+00) (14, -2.60836587147114995489e+00) (15, -7.87354833452244134984e-02) (16, -1.13731431906462709946e+00) (17, 1.09469212064644394466e+00) (18, -2.09634297321490326027e+00) (19, 1.79851260765815745835e+00) (20, -6.75352791765210902497e-01) (21, -2.68243755446074727544e+00) (22, 7.80863466237779579870e-01) (23, -7.80804849292709546305e-01) (24, -1.51056252705472249254e+00) (25, 1.81591342125127108709e+00) (26, -7.13578513738192254934e-01) (27, -3.01442918340324939042e-01) (28, 1.83269908759782107488e+00) (29, 6.43148878769362331020e-02) 
